{"activations": ["Tanh", "Tanh", "Tanh"], "cost": "QuadraticCost", "weights": [[[-1.9415396497687922, 0.8113672995431952, 1.012448015989759, 0.15641476172641372, 0.3542082132219961, -0.4463696084626797, 0.08852221684795786, -0.5653091030840521, -0.38457768709602447, 0.7958454225578899, -0.7866888280834421, -0.5384472550722245, 0.26110974585152374, -0.6717708925598028, 1.7394339237652687, -0.41704816527281346, 0.03683889456376723, -0.2810940871159295, 2.1503237205401415, 0.5433916135237855], [-0.20132047834795158, 0.11493672781611057, -0.8598125657234988, -0.4594362862945407, -0.42662057994531216, -0.4488393834677441, 0.2218521001706615, 0.1885947642180912, 0.06788617051919771, -0.5917616229616646, 0.20270118160470532, 0.16292536025802778, 0.18397324976026508, 0.4655847096590117, 0.20488988890999063, -0.4015066594051355, -0.4518829667461407, 0.007304515119474304, 1.4849225509920854, -0.27415914764804006], [-1.5418023123952544, -0.28561235990374595, 0.39738629958489347, 0.2443850937888662, 0.2065943735871267, 0.44031884912877545, -0.3761514784433115, -0.4198372562521251, 0.7194811323615692, -0.06683439521337152, -0.3817141549788817, 0.41414978810682257, -0.544922046725874, -0.8465864232456203, -1.2422126481642883, -0.42481057480532003, -0.10143230277801651, -0.07275156365426197, 0.6123877902980559, -3.9501225642969198], [-0.3346442603173318, -0.35784221264949206, -0.014218639445766509, 0.5884288813116749, 0.15059238803405472, -1.509452036454666, -0.305902368382226, -0.3480284800087427, -0.7183561626260709, -0.5856851449964485, -0.18230709728708303, -0.094156342891904, 0.015089915082528405, -0.9161835214873968, -0.7098219554177899, -0.0583034555305472, -0.35756578155485597, 0.35959409732332165, 0.42483608843996057, 0.8329086823197749], [2.101045006383513, -0.6244774817863322, -0.26923696379082557, 0.6851493779596387, 0.13474535348796543, 0.5053354597963474, 0.18570403327473178, -0.26034164703822477, 0.2061504795828063, 0.233755790995272, 0.018363822981502798, -0.7722921956219345, -0.5289121177755616, 0.5438318051708142, -2.053791091008796, -1.0099427469096693, 0.7676981896170773, -0.154094295027658, 0.4221887082960699, 1.1305919105903706]], [[-0.017736995371488557, 0.16597068836694756, 0.13167083183262468, -0.098709386035622, -0.014403326867694854, 0.7568226745132839, 0.025597018901403076, 0.2494633014979665, -0.13759304386105425, 0.49314591681347303], [-0.2552128582881046, 0.31443083410549405, 0.031248572860630243, -0.1082008781127841, -0.039753091862558765, -0.09798467542336382, -0.21824310609315797, 0.14212256493391287, -1.4137197027796518, 0.13138644034248176], [0.21397663284433976, -0.108695706663513, -0.24065353481911922, -0.38932775773188977, -0.2272630725029828, 0.2678567545195836, 0.17195328463415196, 0.051594356586455926, -0.0545544011804896, 0.3204825758423169], [-0.2971740227069115, -0.019942948569129808, 0.0236259154524812, 0.8262013643651658, -0.30909074299786105, 0.29929544096952043, -0.13104595398337224, -0.20306122230766963, 1.633343780778632, 0.3125840833808399], [-0.3379720015543163, 0.12814016765020908, 0.49615395154547265, 0.7030164520216451, -0.012543931187836565, -0.434909145261639, 0.19166982760116003, 0.4929428289985091, -1.2352500287339665, 0.011708932932096091], [0.08863929799891704, 0.1170963823915953, 0.2932634277890102, 0.31021810410235684, 0.1485429932848149, -0.3354762452167688, 0.3850470919910726, 0.49758167909672696, -0.5375275776301328, -0.25419905720046915], [-0.004345340973885625, 0.0013296741918531686, -0.0743636500757826, -0.005310691948912046, 0.5449862205447066, -0.20156189325863813, -0.33714573602557024, -0.041452138173987185, 0.04283666879496755, -0.30649775958138553], [0.2758526208952374, 0.10645841009779647, -0.053855700015811935, -0.5145675801824637, -0.29456865400086873, 0.28924308850623953, -0.19342869846872848, -0.043640973888215896, 0.3034939395337336, -0.09827660549196379], [0.11374009927307019, 0.05280281420919155, -0.1974129366236398, -0.0700136861432432, -0.1671643641604472, 0.23574001628564342, 0.16071660372200675, 0.0818998361491817, 0.18869180936598398, 0.4826444400058568], [-0.21017791776223171, 0.03418818744324468, -0.22505382893977552, -0.8089051539512707, 0.062333022632630186, -0.19091512561664686, 0.439284043455551, 0.1624522428638339, 0.12525104362694547, -0.02073705695725611], [-0.36833185050865486, -0.10571225510321425, -0.2289323847289912, -0.28153418122087237, 0.12602030372740136, -0.05374897605426139, 0.0586539054535871, -0.2835198855833945, 0.312151032007629, 0.2283497579779561], [-0.3121050780916397, -0.0989961199909667, 0.19541703458931795, -0.8401848234043872, -0.28003108582674163, 0.3929541692007792, 0.5754092006477391, -0.23074583889376757, -0.3835557151717244, -0.19987594027464428], [0.06249819584613394, 0.021197705853603553, 0.4168307909104361, -0.23319154894086463, -0.9149544760684853, -0.8057028006340625, -0.3794210942333553, -0.13033672467325094, 1.3893599736223585, 0.4457022116350048], [-0.2032304538238076, -0.3329849072106914, 0.4686609304566798, -0.3527033547294666, 0.5321011746770116, 0.03285240133885213, 0.6397045162884392, 0.019088163562670835, 0.10544342598143215, 0.4807876937615766], [-0.24078673399542513, 0.006159305921283238, 0.0729771441689936, 0.5591265689855651, -0.522340741198637, -0.26225164382071764, 0.07328923384967588, 0.01447347258481723, -0.659861307390315, 0.43165769161511985], [-0.01597858957353163, -0.22578877989520907, -0.21622401022303728, -0.1328079027975899, 0.050940403753382074, 0.5710583280709752, -0.48936432863442564, -0.01139619423130689, -1.0876314197307535, 0.2612751973422544], [0.09541160088557069, -0.41007768232741826, -0.3101887825745457, 0.5013568688699145, 0.09364595778023353, 0.19747562186016634, -0.28029900198802227, -0.09911313964709688, 1.1824351616375945, 0.0927433728512783], [-0.08803130803251534, 0.2795659198942346, -0.15302074388030684, -0.1077985693511334, 0.3524238398615646, 0.41192528836655756, 0.2581733437663821, 0.5974082216107514, 0.7804785377053869, 0.14794915454371657], [0.13253895926608153, -0.050029476429550336, -0.06731242479034906, -0.025012819286876473, 0.3160891267735083, 0.2662389199003124, 0.3990838142324106, 0.08093143692270068, 0.010072585884728525, 0.10796718212896436], [0.24856159504600384, 0.2249371711114789, -0.27207764131707624, 0.4026778269692708, -0.011562256311858556, 0.4871135040600979, 0.267801585253707, 0.07957306342546804, 0.2773205933713196, 0.023807450661961476]], [[-0.8367419226067926], [0.5043144045688893], [-0.6801213979555809], [-0.08329397516817232], [0.29460844329991837], [-0.17101403951493074], [0.3581124762653129], [0.5263022372664992], [0.24720725811686334], [0.18954230815733691]]], "biases": [[[-2.6065416710428657, -0.8475102220942626, 1.0355777360829603, 1.3691084826772397, -0.0597499437745936, -1.1826464502819451, 1.0942900138839462, 0.4289409809314346, 0.5718345777555631, 1.7724993943774914, 0.10025251264802902, -0.7537091124221413, 0.10702302167970362, 1.0536487308359528, 0.6238311449378039, -1.11980374683276, 0.8819566297817939, 0.7712268383637223, -0.04944361186290685, -0.2707403669862227]], [[0.06563645470799774, 0.7113044297160457, -0.17709358967068725, 2.480326352758567, -0.7557186763789838, -0.7823552128527796, 0.8411066094340997, 1.5948748335712768, 1.965368327985628, -1.2878519984422498]], [[-1.4419782870030269]]], "sizes": [5, 20, 10, 1]}