{"sizes": [13, 50, 1], "lmbda": 0.001, "dropout": 1.0, "cost": "QuadraticCost", "weights": [[[1.1186858204297412, 0.09600037427975915, 0.4780255488443999, -0.24782229045044082, 1.1151868539349712, 0.2089828734167739, 0.9221228985833174, 1.7513350861394215, -0.4223295248206969, -0.3851236084052271, -0.43459052250554786, 0.2246037929175709, 0.418511177513943, -0.3669438260156295, 2.1370722285867543, 0.6218851158717202, -0.43036524784138325, 0.15428192971393942, -0.06469221591134981, 0.8456309064575412, -0.13640375336793106, 0.10121943941685983, 0.41567632684766354, 0.09873915384169452, 0.5768135552860237, 0.44352779980516216, 1.275901172925948, -0.15278935774442168, -0.38466645318496473, -0.5780817169746779, -0.122970749987803, -0.19754379470901387, -0.8874427521217175, 0.7030432472816197, 0.41733243828915656, 0.26022083907748017, 0.2739054799461058, -0.33152999617832785, 0.3302896477078861, 1.1677699665326073, 0.10927074269046289, -0.05763011185391063, 0.42031586490825773, -0.15815873604401334, -0.17020513163651255, 0.25653887464516645, -0.22665339881793106, -0.34219988664231904, -1.5055640684664415, 0.49419795699196795], [2.3413054160625544, -0.0588683075017283, 0.3833660222222982, 0.3003449935734456, 2.1606906589329244, -0.8863401242106701, -0.26939700653404114, -0.4080382398149431, 0.2257879307727402, 0.6410723628628797, -0.5635091820212426, -0.45086160996248087, -1.1152450875776094, 0.3812567025877695, 0.18474046245325274, 0.0021471836387821665, 0.6719651824080118, -0.6332646370392409, 0.1987366767275762, 0.1251710799807679, 0.43824660862292125, -0.005301084017411972, -0.8050410393341262, -0.6254435825347222, 0.936658880658313, -0.20872019648693846, -0.7465718607131735, 0.12349942855464816, -0.0527155274057625, 0.481873050509083, -0.3080072989100351, 0.19652973139818766, -0.5972683946450736, 0.43013958654114415, -0.6438873212196262, 0.5184869917736189, -0.3309476784281172, -0.49558874901165906, 0.6139756584466368, -0.4129782971100693, 0.5479339908286205, 0.3266535822039272, -0.28897310042619223, 0.7360365721154022, -0.3261918841660557, -0.01622269550465175, -0.0657335752052866, 0.8557577447911834, -0.18787741959564513, 0.13246041786709306], [-0.003936326457843508, 0.30566007409715806, -0.5978727296581753, -0.38989578648180917, 1.3169323420650247, -0.6996908820524896, 0.2600577406765993, 0.44645944668914234, 0.25914009484657285, -0.6388436358638533, -0.621971445158435, -0.24608495783609868, -0.2484734068079264, 0.1981076585109964, 0.08302131234589495, -0.8524162588442015, -0.056210272143349276, 0.492845609472055, 0.4767410780040441, 0.6011174948134377, -0.05406875327615105, -0.8163729942967088, -0.4611413104116378, 0.1936713349190855, -0.7342436297839526, 0.15456924063199867, -0.09627438070956286, 1.1172419985004889, -0.44162226610220373, 0.5036997453432257, -0.7977723061210331, 0.2332443532182638, 0.2316998878472012, 0.2386508357067082, -0.06910538971451086, 0.6855457057956045, -0.0801459074737088, -0.5253222540083147, -1.3372065514116587, 0.16192607187819905, 0.010894724166185418, -0.1929451866562906, 0.176838316753698, 0.4909467240192353, -0.1486796611837813, 0.028120551343244836, 0.17067570215457384, 0.1084762278248147, 0.01503232543696821, -0.39639669008540873], [-1.5924143371815345, -0.19522471056167337, 0.6399219562724144, -0.12550171917831193, 0.652011859092913, -0.7058486293588317, -0.4573117420991507, 0.16498955408469673, -0.04634230561385486, 0.030476765841355634, -0.39695501758281726, -0.16591900259274117, -0.22892490612625263, -0.4019259098192109, 0.30528976587008044, -0.3968937589061532, 0.08206970958351878, 0.4674545444701376, 0.15764140199251375, 0.3182273773161959, 0.3581292903755854, 0.2970252200861152, 0.1717845099107041, 0.07211892981938742, -0.6354048295352133, 0.2869923091407873, -0.0579870045368626, 0.6223026064654211, -0.25085737874372666, 0.4398672359353224, -0.4994009620619388, 0.48399369480517096, 0.42618341763592765, -0.2326288830137701, 0.26299229061466906, 0.6054212835084635, -0.4678578065436733, -0.0982049454949142, -0.36790829648804885, 0.3438877022836736, 0.11137741076210232, 0.09836483160920556, 0.29394646878092123, 0.4229857031063773, 0.5268363019448136, 0.3298798772949458, -0.24880343452981685, -0.37220175769481834, 0.43354190030221035, -0.4744404133409848], [-1.6551902304040844, -0.40934045814595443, 1.57001544944903, 0.35007995435730777, -1.439803638029066, 0.3182773065428283, -0.7807090739351414, -0.441230766612483, -0.22228242680075797, 0.19745352973325395, 0.360012541980164, 0.4564510271069345, 0.8851217875437407, -0.05822340191486314, -0.34443866526231814, 0.13269971434616115, -0.2628876248579022, -0.4348794431881225, 0.5504744226840709, 0.6659848008228898, -0.12191925043342669, 0.31112135609765196, 1.2629092871862377, 0.15882734047766792, -0.5810672576762902, 0.14350437364021185, 0.5525332943327836, -0.843794250896133, 0.5327790931327528, 0.9615232832136242, 0.5053232189732115, 0.18658922536877845, 0.38329518484092306, -0.01774561211273317, -0.034621860545140604, -0.3758363671972641, -0.13700922782361574, 0.8186309031299986, 0.5920611536178366, -0.06344300930007668, -0.23736335261425806, -0.4220132331277796, -0.14463135944468256, 0.08779398535255631, -0.271730658153881, -0.49135880115218583, -0.41055282787940045, -0.7678692968672151, 0.09050211111435186, 0.1093628491411288], [0.38733764223014794, -0.2247564061042839, -0.6976924181578332, 0.763610752462405, -0.8204816323826907, 0.6890236126673557, 0.5037317142043373, -0.29764482335848097, 0.3849071251932411, 0.0031639096766967476, 0.38575549698927875, -0.613163391004434, 1.1481785688371957, -0.3124304316715465, 0.037611868158093024, 0.024376317434501922, 0.21418325216506554, -0.15361969258288558, -0.8302068559578599, 0.3813394906702121, 0.26546482882688843, -0.15807253694069875, 0.7529454215349648, -0.46578308997059803, 0.55578455087345, 0.3804809900035979, 0.17203028246458996, -0.014527148850588084, 0.2506449831890993, -0.48527768956419876, 1.1013121750132249, -0.33075484757300483, -0.01377535465716003, 0.49050359718415826, 0.40411432024527705, -0.19381064902230882, -0.1202024178125998, 0.822043474617765, 0.21171185229932693, -0.10046612151606846, -0.18378680040373613, -0.4208024745857297, 0.18139120766498196, -0.08862075416302931, 0.05580616078650489, -0.2643445605031705, -0.2111150809515217, -0.9165346010300692, -0.06835040635186353, 0.6091450075922082], [1.0076279456689547, -0.20191824224896532, 0.7031670648049416, -0.39032436584404356, 1.0103232197200644, -0.5145922497673964, 1.0350597334855323, 0.7441938656488954, -0.5202236005213434, 0.390875117763446, -0.48884449367236943, -0.0013540181605904917, 0.41811495685576106, -0.2858359057721922, 1.5083291267675243, -0.5711009562965174, -0.34424605080259796, -0.020863867597079613, -0.7916570887603643, 1.2051398749513231, -0.5703315726392042, -0.21677695521721668, 0.4141395566276594, 0.27109634716777176, -0.05381186829897171, -0.3021088800265244, 0.8278921325567893, 0.2244580770247168, 0.01759501334440812, -0.6279639629055215, -0.09177488964566591, -0.5061985768847814, -0.5578284930435717, 0.18193659515793725, -0.1381024371683439, 0.17191674691811804, 0.521673006241602, 0.021337996287756775, 0.20958583304075903, 1.0894545099384845, 0.17313330735345908, -0.44519650477364897, 0.3386855446214486, -0.5670764746620456, -0.2887606705937454, -0.29091797003698305, -0.07082169773043467, -0.6860196201008493, -1.1856425388097496, 0.3252100653943738], [0.607443875595587, 0.49584885891239355, 0.6452918421694975, 0.15430128270620383, 0.9155768410125884, -0.2509299724978248, 0.7479911042601619, 0.2974410714202194, -0.8429059891208749, 0.16774946147552844, -0.3134999707048386, -0.1725289739395749, 0.474314077944144, 0.24281106790581736, 1.087149856804315, -0.3602608479615316, -0.4022689863431547, -0.003839557585274043, -0.3997685446775278, 0.5641077833155809, -0.30184459680569486, -0.11706373733800683, 0.23498278226122085, 0.6453679504393129, 0.03542363421777406, -0.0654205059198664, 1.2997692118334438, -0.23202334186758578, -0.5039889044067413, -0.23761665621037906, -0.18184104606180498, -0.5759915086429657, -0.8859225045630406, 0.2040416958928697, 0.17035463571452988, 0.25041160334070445, -0.08729814940064233, -0.05360682103436541, -0.45897440937091166, 1.2012401998728173, -0.2461687844048171, 0.2002193745073588, 0.3249416083129695, -0.349489391207483, -0.23095375206013968, -0.3651297755475718, -0.19034991577626345, -0.12530098801087003, -1.1375467124359313, 0.5067172619377271], [-0.10457546588477903, 0.12590775823753594, -0.9084930618030637, 0.3231824129970875, 1.2339108490247088, 0.057711562552103246, 0.14633712960622713, -0.29780936795878327, 0.3739340764108543, -0.26306564087769, 0.10079455516871175, -0.013715505867396324, -0.8231485108320535, -0.07308526731766346, 0.27888597071538446, -0.01217551109426142, -0.0491374705913926, 0.10314157745125645, -0.20534023127654616, 0.11020031169189491, 0.08444451563929618, 0.19362400448044118, -0.1217045786412877, -0.4775528668236211, -0.4837950123944062, -0.7270440249283052, -0.43978778169237, 0.12674287246523144, 0.22948528794594925, 0.9586714879290567, 0.22676026438586946, 0.35513285108740844, -0.671643162358635, -0.060310760886657606, -0.015448041956867274, 0.09543690679192135, -0.2749263741575236, -0.41868364625142224, 0.2366611971902, 0.2716686703550701, -0.02127434337100915, 0.4267774909650426, -0.21030874974645905, 0.17888740144357063, -0.048619882057704206, 0.3792683421594984, 0.3714213548643949, -0.002886701051230356, 0.09186013600816166, -0.1564942045244306], [0.0484004850683186, -0.3459825927117322, -0.6297519272201163, -0.0023167037126977704, 1.2474942825018007, -0.582024937099031, -0.25202409683584376, -0.579808109749672, -0.06819027716340985, 0.7221990171889363, 0.0730043124067357, 0.42349964926839734, -0.5632099540197121, 0.1537497911252728, -0.08895739168289307, 0.43411602536216454, 0.1833630862592579, 0.38689945862794867, -0.17836421610192757, -0.1449280030041498, -0.09330766978543273, -0.17090379763262784, -0.961477095273542, -0.1133944494122313, -0.4790886080702014, -0.5427732318566995, 0.16143003667723185, -0.15966412232571242, -0.12554040682594975, 0.7936298019188663, 0.10544565262472401, -0.10879202955022776, -1.2129129232818316, -0.01418792150039612, -0.5304688012297961, 0.20253330969682673, -0.3130770356812502, -0.43658149699273974, 0.13749325975954263, -0.07206720462065791, 0.7552004637761018, 0.6973121114366121, -0.4661508913502645, -0.08177059871990425, 0.10418570820976646, -0.048713168329223656, -0.06743608233641839, -0.014539129403133089, 0.060172645307842124, 0.44932249867224394], [-0.2419514709798079, -0.13581976148882138, 0.7581812857131919, -0.6052889132730308, -0.8892495533590415, 0.12113084446007928, -0.06387442829691192, 0.1508482308072668, -0.5654319875578351, -0.27825099494908756, 0.4355136794869079, 0.4672350251935856, 0.24277468299427868, 0.19294837215065022, 0.18263479398341415, -0.14106786495348264, 0.03541864127870922, -0.08171801697752736, 0.3861936019268481, 0.188147292962298, -0.41550268263172024, -0.0720588761911068, 0.44854969899359476, 0.05654123628797634, -0.4572453170113848, 0.16324995477605608, -0.08579322005750609, 0.16751851050019304, 0.4429134375266617, -0.7231117674434526, -0.10652072171454807, -0.2983343931143733, 0.3913532483345693, -0.13678616406967528, 0.5395716943251343, -0.6016398808343939, 0.7505321320274384, -0.09710348540939524, -0.7299068081908323, -0.10978113250729053, -0.2296371510862688, -0.5702502617534024, 0.027093692929987038, -0.10386527308442083, 0.220908572081839, -0.09142999170604507, -0.48698838105803266, -0.2609263622354738, 0.03062740033857036, 0.09733068590276507], [0.4485609233855932, 0.41027447945726014, -0.6424358039489069, 0.4546642425196852, 0.7692154424937367, -0.022770540026148395, -0.292724492696864, -0.15899869920786452, 0.5910119596340205, 0.19191758177430052, -0.286468230731132, 0.31535079522549875, -0.3044858647269095, 0.5720065758236105, -0.2527829700887486, -0.35649630204126037, 0.7181607555779378, -0.5299154263176649, -0.3738626922078813, -0.37149489295939037, 0.3819169446049856, 0.13828029915633974, 0.000978216888577483, -0.41092220182364414, -0.5482099103457626, -0.31172287134870125, -0.35157632615114864, -0.22440178327097635, -0.015639149050137004, 0.45924325754571405, -0.24105909402309408, 0.3984695895637125, -0.19769301046423235, -0.5790069859188967, -0.47339573364182386, 0.10393553742261416, -0.39529463384143165, -0.308842579620446, -0.10475927464053508, -0.3175074596813138, 0.3286185340793678, -0.09232240280642849, -0.8451496048560669, -0.36124313663047136, -0.1856207246654909, -0.22362373961417928, -0.14568846265110375, -0.2799610483325017, -0.21246707802141446, 0.23015401812740724], [0.17710210772824012, -0.6395792074422901, -0.2971461556891021, 0.7848458828307525, 1.3656574213173285, -0.09296751415312167, 0.10637992991746055, 0.09539760681568649, 0.06743666898540128, 0.05347051853487543, -0.33156011814591196, 0.11385358681606529, -0.09485144727604604, 0.22156137667030482, 0.14566772807835307, 0.2546639746276623, -0.08363061988899356, 0.13835560946205439, -0.11919201652529095, 0.2099507826607336, 0.4479397751181805, 0.17865096889232318, -0.005483610570424886, -0.5395954359946614, 0.007176182556832975, 0.32416015261385067, -0.10311237237660148, 0.3155334026645342, -0.05327038143168473, 0.48680298576871567, -0.39010911413301963, -0.02662954191147295, -0.8203367523125366, 0.008258240732805055, -0.07024472976748267, -0.13735120058622213, -0.07063502403030533, -0.232781045035388, 0.2475004847088137, -0.0715985964986975, 0.01181758615647369, -0.24526370604731013, 0.4098233952879435, 0.2058223877139972, -0.09979689321519501, -0.15417566761239504, 0.28922963658385864, -0.11436637402554412, -0.11331246330933595, 0.25170010928265374]], [[0.2444780624649603], [0.05688282571985187], [0.06717940417833658], [-0.08568586767042419], [0.594549537587802], [0.06530777414641133], [0.1021234966923503], [0.5498542470162903], [-0.3260584148319284], [0.05969492335123224], [-0.026068318677809885], [0.15632225410395117], [0.1529486215273878], [-0.03906459960121238], [1.182240296791049], [-0.03491395485441083], [-0.29015074578260336], [-0.18926865728684072], [-0.1475386023044269], [0.621865766915805], [-0.1789045995468588], [-0.024094235461176918], [0.084675439391508], [0.1288714835182273], [0.178517923713825], [-0.007722577276069877], [0.7308299019355837], [-0.28072315645073914], [-0.04169673551756942], [-0.14446888810583813], [0.08909711627612248], [-0.22557228297238946], [0.11501932241846215], [0.03334927208034555], [0.08019410069288761], [-0.027672538888004396], [0.17983223662554065], [0.010471171703766022], [0.03913648988636931], [1.0518522106222032], [-0.02710768892822062], [-0.1603219820860579], [0.15026542039117988], [-0.010402891180796965], [-0.04165122771080166], [-0.039640171936212554], [-0.03378976287594594], [-0.001704849425727871], [-0.9412304810966522], [0.030112209170893717]]], "biases": [[[1.4190053621862135, 0.43657065162197617, -0.01088989561364491, -1.6912313153851448, -0.44500290405461873, -0.5102211802507187, 1.2596467279225163, 5.165735937530235, -3.3649049508523063, -0.22240875194502452, -0.48014489278189687, 1.0397331273332524, 0.2682165110507339, -1.022810721758536, 14.386823090174536, -0.39783438809110777, -3.312168621692822, -0.5014963221005224, -0.43319025100418374, 6.274207262066023, -2.201883324425704, -0.43002997819227734, -0.18113774876853592, 1.9685019933316874, 0.9808269526462902, 0.89325048044333, 7.421440185482583, -0.9384997649505663, -0.22331370800238723, -0.449130729395694, -0.5427517021682063, -2.244830435140498, -0.019386306197162147, -0.4506939152046565, 1.789050044479597, 0.3952152449749639, 2.6804409563028804, -0.9665216697192344, -0.8863415454311556, 12.848758848653635, -1.4616705531039216, -2.6872251023285654, 1.6218507855302975, 0.2670792405512666, 0.5457293540652068, 0.03222597579821911, -0.3670691558249118, 0.7158989402341062, -10.394215546983828, -0.5697857735959971]], [[36.5975800740329]]], "activations": ["Linear", "Linear"]}