{"sizes": [13, 50, 1], "lmbda": 100, "dropout": 1.0, "cost": "QuadraticCost", "weights": [[[-0.11076677318217718, 0.8852597091679995, -0.023609123377810994, 0.7587953584607995, -1.1960674439819436, 1.3142711688913888, 0.47628381319400537, -0.1947981535963865, 0.680791727755932, -0.5739445402613603, -0.0447337033465308, 0.03754351210408709, -0.1139574116878958, -0.3465586545071772, 0.20412168596290686, 0.7035183475839522, -0.26233326316941435, 0.11539667227653243, -0.1402497265917235, 0.15774220211788276, 0.22024710156253652, 0.11163611781730791, -0.15006699439105403, 0.1969574597538111, -0.19364001828489405, 0.2981367245169216, 0.01883435568689624, 0.900125905207451, 0.04975238249070029, 0.16973645842328733, -0.02378375178470403, -0.00041135198908005734, -0.043912381378361065, 0.0005744322848716607, -0.13954702654836068, -0.1437550382031246, 1.4150751752072743, 0.022592176739033666, -0.17721808586478185, -0.17351772390896406, 0.04926363622373722, 1.4238949382128905, 0.21681881459198957, 0.365688731822046, 0.8465381345686842, 0.4738224283727278, -0.05916462143844339, 0.7159654711234705, -0.5236340296102422, -0.0015598298880150716], [-0.0028906004770685775, -0.019559815530936008, -0.055310433943864167, -0.011082602222087594, 0.006019774253033112, -0.014061457874380156, 0.21973369376832344, -0.15398871520155058, -0.07123492315144671, -0.02734677640386718, -0.02352741793702397, 0.00012518720648940817, -0.012396937413801986, -0.029704831814060875, 0.039254559232269476, 0.02207720880559285, -0.04627337811712736, 0.003044593133024097, -0.09441695406941512, -0.05122709997058288, -0.15078263213550933, -0.050886553666649945, -0.024761960026217587, 0.017094823151593067, -0.032469153177383, -0.030453349463080075, -0.07026671770484637, -0.07783706111055202, -0.12172625219648803, 0.06347076889101691, -0.10226769680676627, 0.05314857068324453, 0.044765492955259105, 0.026272229029418226, -0.10076334018185881, -0.09020562338968399, -0.013849707751923773, -0.13471095459837057, -0.03295534569085775, -0.07454900918360281, 0.07721918886357777, 0.012267855434585077, 0.10159423549976894, -0.02305135947800366, -0.046065983445065274, -0.023603800314756118, -0.0860320487699241, 0.01859177355129811, 0.02530646756060577, 0.07585411246309491], [0.009626503430350387, 0.0007607493444071103, 0.11966197254180988, 0.028986588118920718, 0.01823279116557726, -0.013561961279395459, -0.25457784370057857, 0.23147757154597343, 0.07677224224315496, 0.015511187085758254, 0.06486207331603948, 0.0655581845773715, 0.050326283820733474, 0.027900719936663942, -0.04579903015870559, -0.00733335343603719, 0.049981523917975675, -0.019572646391801528, 0.14369630826303062, 0.10006995347163658, 0.08336647538560335, 0.052458664139162725, 0.02070926224540917, -0.009021740750622356, -0.011763203974090912, 0.034207601906978004, 0.07278138909642498, 0.08460964908894712, 0.1833868438749696, -0.07189040056360774, 0.15103614937631532, -0.06195712625813364, -0.033642179087975066, -0.06187950486241633, 0.17781069127078653, 0.17614018972913267, -0.010060630226397145, 0.2008213630411058, 0.04541186479364993, 0.07706944586472306, -0.11969851471262866, -0.046659796085511525, -0.1931365519975967, 0.0281569393740118, 0.05555436397338448, 0.0346012000506255, 0.08792629272128247, -0.009717484676086841, -0.0315145315464446, -0.07922806974659083], [-0.018631675896963233, -0.03245214766593229, -0.03493660453675748, 0.009569990242820731, 0.028060955852110582, -0.03383204325364005, 0.19622674787304076, -0.1705567876554925, -0.04258167317230609, -0.028113464961814823, -0.016356785473895633, 0.0025694689774517165, 0.008976761831925483, -0.0011594721361809814, 0.015159001295678131, 0.028794996970826263, -0.014263428374382336, 0.022927007865952406, -0.07640744971167783, -0.14307818885390247, -0.23766668946684602, -0.011443227911457432, -0.0097366722636489, -0.0028367674748936305, -0.09243728353108055, -0.0005168784445539511, -0.024646786405174575, -0.04829365203629442, -0.1414425079780666, 0.03591859145470781, -0.10311796825358524, 0.04243482675495013, 0.08051690516005675, 0.03156145368331825, -0.11759343471832688, -0.10953427197147338, -0.035972517176871506, -0.138037042670521, -0.016500076101227414, -0.03692918436201156, 0.0470891218935061, -0.02111290681975359, 0.12127292730128066, 0.007279280864771106, -0.022845032045697235, -0.003659431371031301, -0.038587994441411706, 0.01483291332000983, 0.0033609199015338393, 0.03618842488950553], [-0.0012360070421368581, -0.03028315649689163, -0.014496204180110338, -0.07327761823776499, 0.012580591573097233, -0.014102144784911022, 0.18399014290306837, -0.13079615314368978, -0.0878671392625059, 0.050163931341011304, -0.04983623429573089, -0.03168419722731224, -0.032255861177966805, -0.06248312476833168, 0.05931777000339854, -0.04666726203077013, -0.07926639549353984, 0.0018479805626314594, -0.061779690968714246, 0.04488953728449757, 0.09147034384928096, -0.097969265899138, -0.05433868294328477, 0.04278107764435496, 0.09078840692968121, -0.08550213160488532, -0.11073915154096559, -0.09646605354236804, -0.10597989950053319, 0.09004783264819709, -0.06081643442334289, 0.07939614067582665, -0.061672260304667416, 0.008992998242531828, -0.09713290429151464, -0.10294101542254892, -0.011493634690880581, -0.11277793380187633, -0.024857733303764354, -0.10583346091338912, 0.2292201287967735, 0.025067595362938993, 0.11165757506980262, -0.08588822710477002, -0.06778521855239286, -0.07705552430177208, -0.12120389947967694, -0.046185832146303896, 0.07857501069627208, 0.11091360754007612], [0.0187641660591095, -0.009150523182845784, 0.10173821297459762, -0.012967937212247213, 0.02810799961661444, -0.028255454710175692, -0.21257658373110297, 0.2530614361045216, 0.0146196952065263, 0.030249692428472467, 0.011426794479995662, 0.01898220430318928, -0.02590533404919633, 0.043446716395543095, -0.059753466383575475, -0.037581650233782224, 0.058913105815621904, -0.04491918413804563, 0.10463727181828657, -0.01921670685326018, 0.04793920170197611, 0.02505768467814182, 0.049804729333313744, -0.03422720557893761, 0.020705268330612304, 0.0063570971659939355, 0.04249450072595611, 0.026295661140426387, 0.18586152440665893, -0.083818449562625, 0.10393054794893217, -0.07653182362945093, -0.0832972446179948, -0.04517484772899952, 0.1779077180635228, 0.17607865441220608, -0.019523401674384575, 0.16194456049674727, 0.040783102143849635, 0.07333728352305845, -0.07529866432273692, -0.04321323392163295, -0.20793438854220117, 0.0024246963922243906, -0.013224557045953414, 0.003277477495686621, 0.07006181639097664, -0.02407523066053671, -0.008047276834572296, -0.07127271260115603], [-0.13488119640061375, 0.9630101480385526, -0.017068102307662383, 0.3270266456535015, -1.061431304341374, 1.0764021143422111, 0.4642501578005262, -0.14381678910875395, 0.4727622597213837, -0.5203375872704449, -0.06578597153240592, 0.029641302700056587, -0.12428916074982689, -0.43186741500124076, 0.3050641477152121, 0.8635342224775803, -0.3546647666473053, 0.12525379711290946, -0.1609194742607377, 0.16779252977308237, 0.22173089432382084, 0.00966656884137673, -0.1857890923867524, 0.3113108129885177, -0.17465795936043277, 0.19455395691991945, 0.06628908516845568, 0.4254189353009816, 0.005850166236875086, 0.2672688826715326, 0.05293803308584003, -0.022383717340164817, -0.04186953655567795, 0.003247559071511528, -0.09872535096192925, 0.01591108693960092, 0.8476408260123951, 0.10176202232464551, -0.1840651888794718, -0.3079617765818369, 0.017329225189715393, 1.128328497775673, 0.18117860849657907, 0.06867812495519078, 0.6524574611564179, 0.4547566973532763, -0.1947436282941976, 0.7472153560193777, -0.04305249006672976, 0.14699033583173693], [-0.13910688390102138, 1.1143459151869497, -0.023908180301850074, 0.4439727751811767, -0.5558320222425485, 0.8503088946956908, 0.46156505598539144, -0.21074750156552424, 0.44222300639996986, -0.5166715390247335, -0.0775786429235192, 0.008974561731129756, -0.14538653043751062, -0.38615181426582984, 0.3401391562492796, 0.5563926367211817, -0.426762308951059, 0.13507646271417068, -0.17757211907367365, 0.1811531430942421, 0.23245050140820048, -0.09810491361015676, -0.28397565353960896, 0.42548365973434177, -0.1583871708219424, 0.23551454102243607, -0.024398154348057335, 0.49427748871092475, 0.041883148398009475, 0.2721122974698762, 0.21753020192423694, -0.03980021009963664, -0.04571131081305413, 0.009396973628596712, 0.01644073494274643, 0.0011870862593010845, 0.8013452205354475, 0.0007630653827681889, -0.19055649661296262, -0.21777452997401897, -0.0008847495058119863, 0.881449527264297, 0.07775879180511719, 0.17006350727837422, 0.725021857379734, 0.35441557311573896, -0.2599984326661213, 0.6765800818265256, -0.24731643133397546, 0.2960247847068098], [0.09546404660818897, 0.1737817342086509, -0.39494328906365905, -0.061670655939069396, 0.03216544353682008, 0.05270073637192033, 0.23568294917002375, -0.1962511127749244, 0.04987774221878874, -0.10796458393142581, -0.2245241554737348, -0.17746937892602777, 0.02228705075913989, -0.23295862092339978, 0.27020714814361707, 0.09532637810996115, -0.24131659300828856, 0.2530838363510758, -0.19762378517797843, 0.18997481671479113, 0.21593988539154055, -0.1305306732021006, -0.2408519833143963, 0.20426164487240428, -0.010975935681139895, -0.11723699648238568, -0.14595458452072935, 0.09198899785573565, -0.048209066123367374, 0.26169427806200346, 0.05006158406283154, 0.18894295220579382, 0.37095117746296674, 0.3542224335006485, -0.11138020686159424, -0.11143367342429872, 0.18803874304049892, -0.013308567735845935, -0.19668459360417337, -0.20760884610379562, 0.179186493217455, 0.07637306196351717, 0.18004221985013347, -0.07678390687048113, 0.12645696487579391, -0.012752205204225278, -0.16823394370278694, 0.11163516847121174, 0.057921887752303274, 0.19687426104302536], [0.1350958760359275, -0.03199528995217303, -0.3286651726846614, 0.017232022240941985, 0.041402410528716474, -0.017116824254147782, 0.16815483409574633, -0.179912976676482, 0.06542063541355285, 0.008615798263934191, -0.13483501599741232, -0.10169879477519583, 0.09641228131333161, -0.1410816407659337, 0.1897163498586906, 0.00701430240092088, -0.2024983009284586, 0.17000394854288303, -0.1255179227257157, 0.15085839676492765, 0.16146766436412754, -0.06910426033357263, -0.0851549305909475, 0.15552289879576148, -0.012340853291506085, -0.13499563944621676, -0.11691751349385857, 0.054653794344673656, -0.06906460951539248, 0.23816905834277238, 0.049272817719395755, 0.21927336017540922, 0.33796569556721034, 0.24050360348353894, -0.10968558676487372, -0.12234826918723667, -0.047968144377014785, -0.030306517984658943, -0.12789182283608724, -0.15215751415987475, 0.01045090971620394, 0.09232050338861907, 0.1763584596902401, -0.06357190755899363, 0.02057604981498767, -0.016843388799478266, -0.1331556681697147, -0.08622898114499454, -0.009472044352307935, 0.1382176827358587], [-0.06783694388387339, -0.04580221376669996, 0.17248951507411195, 0.01075365727095522, 0.058973868036376616, -0.07780460848468215, -0.15430013685131683, 0.14163368012015282, -0.03047346834862421, 0.0032689651127113554, 0.12259897203779467, 0.054083743596229875, -0.062156474922265406, 0.16192024643898514, -0.15630698351991115, -0.033550546652050074, 0.16795356004585352, -0.19613556251728034, 0.1171369865329332, -0.1144654473221002, -0.15494598330707046, 0.10977592419455495, 0.1836111370141545, -0.15983633347883489, 0.10102915317526248, 0.06312066003188463, 0.12497405059849875, -0.016184230168356094, 0.06102539449953713, -0.18109646728201564, -0.03879772473489983, -0.15237418506993158, -0.25250518342678474, -0.22911361230075694, 0.08355647733997253, 0.08684559591463736, -0.05434140437425028, 0.01648236849860897, 0.16580087535292104, 0.18018059202485753, -0.06217034718325555, -0.1050442771600506, -0.12655433401073096, 0.0629726591970287, -0.0478073820346856, 0.04232137652040434, 0.17044833593645056, -0.003065944597086423, -0.06125046314538698, -0.17140686699574484], [0.10989036942408333, -0.012952516652784553, -0.39225565924248634, -0.15786962645355943, 0.10289769371102696, -0.15866025403706438, 0.21221098678328554, -0.11965033665463315, -0.05806762210017035, 0.19945567187589233, -0.20193882998611662, -0.16564317552304772, 0.04526503395644704, -0.2681580912403413, 0.31392084444723717, -0.1543341486825528, -0.28262788138804906, 0.23679086862737575, -0.17328305623375173, 0.193206687607435, 0.2248171360084636, -0.15361267639177661, -0.2556458692117003, 0.24450360804719717, -0.002783646912081914, -0.1724499923625156, -0.22855851250670017, -0.17995248812597942, -0.027384624472675572, 0.28484297497897143, 0.06376910715709555, 0.2071936537661712, 0.36898127194640773, 0.33566806733955845, -0.04867223024011974, -0.0755455992783139, 0.011522878964885599, -0.024262315824983706, -0.17851497356635135, -0.2616530566426754, 0.12447651081743069, 0.10487671509233708, 0.16194649303467396, -0.16683941861149726, -0.04889403613522553, -0.1858250374758756, -0.1880365609284827, -0.14046038540068687, 0.15343879361435125, 0.31926902246901306], [0.10809456025294994, 0.18785479305895192, -0.4108596546210666, 0.047274432297516045, -0.31260023048054403, 0.15367421274316898, 0.2293856703374987, -0.19846135402678214, 0.1991891282672135, -0.08033958654413345, -0.22005449874311725, -0.18040965096538047, 0.02314866813653245, -0.19111827655873975, 0.20473817356651466, -0.012421696649381572, -0.19439337611129534, 0.25163587400410103, -0.1924374721568617, 0.20050291195449194, 0.23724611946773083, -0.03401251560421923, -0.18590549307049273, 0.15594042071711953, -0.011408978961919192, -0.024441712256874287, -0.0437940374357204, 0.2096855416666792, -0.09284769009154442, 0.20544383131024968, 0.03307762231997694, 0.20055125355091763, 0.37402684501803, 0.3562970468606592, -0.12075986312256069, -0.130435094701876, 0.23795335864016035, -0.014219456402932717, -0.19288749863684287, -0.13000953291545028, 0.1628374330171321, 0.25469117797966023, 0.2261915438141458, -0.04385320608659081, 0.14608227903351845, 0.00544027665342167, -0.1500428506076237, 0.11104791464594989, -0.047508153862398504, 0.1914916457118558]], [[0.05238027301692897], [0.7890188946014118], [-0.0553370689764502], [0.48202163053695135], [-0.82844390582943], [0.7977301187172864], [0.19054387638631137], [-0.05529672361298721], [0.5603157127131927], [-0.5972902938455728], [-0.06792167808854661], [-0.025270878657139027], [-0.09435350078515733], [0.04800240905215276], [-0.035430624633766734], [0.5943781176720433], [0.04757672576672632], [0.031202772117159955], [-0.04592702357062473], [0.03709958479048346], [0.03565869675108677], [0.2455634095444211], [0.028210437458802265], [-0.029506104250350697], [-4.8432299947757766e-05], [0.3244864541076959], [0.19215993930897488], [0.557657740326513], [-0.02806074880669654], [-0.038588544248627746], [-0.06403618301429306], [-0.024573103095321024], [0.07818761784988854], [0.07577747768815239], [-0.0815755528241333], [-0.06833900330781217], [0.8253424927687818], [-0.04711707295456279], [0.023857816602819666], [0.08510818714282002], [0.014876324044828537], [1.0135121947614731], [0.09473463811544136], [0.3522138953776082], [0.5892364108492718], [0.4224088588881596], [0.11686510882111431], [0.6159469048569644], [-0.38486112561049685], [-0.08663327638718285]]], "biases": [[[0.5661997159906551, 7.771092101982329, -0.32256870629253453, 3.699284410693437, -8.417539314073219, 7.478949190872433, 1.3665441396176625, -0.1865514797474901, 4.880573549973481, -5.44677280074457, -0.46829957591141774, -0.2500102231562969, -0.6896743850138664, 0.6927850971048823, -0.5278176781219588, 5.022803167831414, 0.622654451959272, -0.07868039295954016, -0.3487285925843592, -0.10447904978817728, -0.21249949525110112, 1.6128881839864309, 0.37518580344788716, -0.5102135443893696, 0.23078996649332875, 2.166338717566298, 1.1017737238225567, 4.784165339993007, -0.1553560104591277, -0.44360135502929593, -0.6130084403219791, -0.31412924451885965, 0.3256864010552445, 0.48225522521143577, -0.4898482214605416, -0.3537185921627825, 8.129387182826079, -0.369974635045016, 0.3773427041285566, 0.6719355075286085, 0.7503349621342078, 11.503092533369658, 0.4535394042809595, 2.536885221397948, 4.837198517615497, 3.0723400334217943, 0.7467482010343224, 5.408113343585469, -2.819009515211397, -0.5992697788598966]], [[32.015667699207725]]], "activations": ["Linear", "Linear"]}